{"input_units": 5, "hidden_units": [4, 4, 3], "output_units": 3, "activationfn": ["identity", "sigmoid", "sigmoid", "sigmoid", "sigmoid"], "bias": false, "weights": [[[0.61131075610477981, 0.16235697774252089, 0.13492150791612523, 0.026142450896560865, 0.56953361600280317], [-0.056080781336570573, -0.77550915059533698, -0.49367381709661273, 0.16729205880094344, 0.50086521326932487], [-0.44603194522073741, 0.27283526589940033, -0.44072928880170048, -0.43251691061930442, -0.0028039854649882789], [-0.70143192794741871, 0.52641715766220043, 0.49488403212324739, 0.20234823399708179, -0.47280412871819394]], [[-0.3447939948690576, 0.040387037653220381, 0.13304347989508569, 0.19013637282783147], [0.43536920960132897, 0.12490448129080445, -0.59418804668311898, 0.019080582521416423], [0.24664044168298804, 0.38746584919448013, 0.86303889073706419, 0.37203726245402169], [-0.80575136271791792, -0.74566892844529165, -0.20194092224392857, -0.17014259455707748]], [[0.18116234906323092, -0.49844606643861306, 0.66393105143551334, 0.20099945218946214], [-0.77632668683548811, -0.50581461675684214, -0.81717374683067845, 0.80758687265858897], [-0.47080734171343641, -0.0090060249389148916, -0.29294564202325746, 0.84888455537462126]], [[-0.4731776777118577, -0.71257487040841494, -0.99016954395038992], [-0.67810591726690483, 0.97264791814182239, 0.83000305746880421], [0.63112332325791165, -0.37417653266186202, -0.58773452376774937]]]}